{
    "mode": "train",
    "input": 42,
    "output": 1,
    "GameSets": 4000,
    "Layers": 6,
    "weights": [
        [
            [
                -0.09116455674969545,
                -3.608647386788842,
                0.5622772055695007,
                0.19612255978807658,
                0.4591489024829094,
                -0.3454863332611753,
                0.585114562035706,
                1.308110363311728,
                -1.8117297499490732,
                -0.34530523922264633,
                -0.02220193571812156,
                0.1937258077247244,
                -1.119966316873798,
                -1.884939787402179,
                -1.2397398896044003,
                0.08943175976810035,
                0.1777927663638312,
                -0.2894282882933019,
                -1.5854900149053344,
                2.0746996029655675,
                -0.09753662204388384,
                -1.4914471089861536,
                -0.07566392790351985,
                -0.5789403608254068,
                -1.7344562657331704,
                1.1255052330885693,
                0.2884286825304195,
                -0.011596850526557035,
                -0.05502596665282412,
                -0.28245011457432984,
                3.9192030634224366,
                2.6708211762219425,
                0.10686728080113578,
                0.28460939659834567,
                -0.7460020202478314,
                0.3124185019288379,
                -1.5256492511883923,
                1.822811547703692,
                0.9433223522397794,
                0.8940463200181582,
                0.20570607899618507,
                0.7824232833813767
            ],
            [
                -1.7997825862076464,
                -1.4104776979871254,
                -0.2864181707311739,
                0.8286552191843738,
                -0.3633774837858707,
                0.26517837172151026,
                5.794252272608622,
                4.504260258661322,
                -5.89118190125357,
                0.28093392837787257,
                0.10147260461523881,
                0.20307065236069063,
                -3.868463025342303,
                -5.27010553401918,
                -0.8341142589986521,
                0.13106767427139368,
                -0.16656887757172265,
                -0.3331243201022955,
                -0.09113556615152829,
                1.8545903756552504,
                0.37379224456238624,
                -0.5681034321115009,
                -1.202434680631233,
                0.012054271405707976,
                3.548710191048928,
                -4.801494148371208,
                0.1167282353921758,
                -0.8038049705519051,
                -0.08383167074831084,
                -0.5338158750176977,
                6.759702281027967,
                4.905669174121332,
                -0.040670887103310654,
                -0.29524154035924116,
                -0.12688450663568657,
                0.5304457092751979,
                -5.558281859945702,
                1.1521039850767472,
                0.1504474088985526,
                0.0032553231973141365,
                0.7551648207176149,
                -0.03433295062582657
            ],
            [
                -7.889941849486944,
                6.22176395921377,
                4.958841640478106,
                -5.279035974412851,
                -6.459415473759685,
                4.624532864038828,
                -1.8937742713448484,
                5.894035118689443,
                -6.304429391884118,
                1.2945045250113776,
                -0.6923017188371505,
                0.9395040945623695,
                4.333978325189309,
                -4.587779981790678,
                -1.4054197998349178,
                -0.227028481742342,
                0.43700854516973164,
                -0.6481645871609214,
                6.449815645261292,
                -0.8695985201721863,
                -0.2281547345248347,
                -0.31958114704910096,
                0.5139643773918322,
                -0.07360740229995139,
                -7.69799520680223,
                7.518323329404484,
                -4.381127264098983,
                -4.350374166849429,
                0.3000595785546646,
                -0.533602351875519,
                -3.36854004667203,
                4.0173956459072135,
                -0.3221175366066527,
                0.13722150527530852,
                -0.5265428878108525,
                0.4677697093080828,
                2.193706924505345,
                7.057772326797014,
                0.968767866334041,
                0.13042168169199972,
                -0.22514728892608357,
                0.7204145196091888
            ],
            [
                -1.2424693162867306,
                -1.0465658638936537,
                1.1075633112046281,
                -0.458335489719807,
                -0.47714141465545074,
                -0.42886424934078216,
                5.703425722712187,
                1.4315099528981106,
                -2.964206357884882,
                -0.42873563678259663,
                0.3287137985274615,
                -0.4677160571143091,
                -1.5872118394240893,
                -3.7486090688032685,
                -0.9796676393598513,
                0.3541683435649954,
                1.163206149731179,
                -0.2954090487180485,
                0.828238635050745,
                0.3088163875808304,
                -1.261005768223591,
                -0.7075227865651037,
                0.0962074826223581,
                0.3845562134599516,
                -0.8752805882032658,
                -1.0423102820161534,
                -1.4351826971271064,
                -0.9483920337064949,
                0.5170178014663592,
                0.47829676171893737,
                5.416404090690357,
                2.8083173204051923,
                1.230113007387723,
                -0.9765918436153663,
                -0.2630676186390464,
                -0.3715294879814902,
                -0.15397538316921233,
                -0.8093130411243115,
                1.1559005453276652,
                -1.3281657571778194,
                2.9018766267227902,
                0.9893551669242886
            ],
            [
                -0.4102421912979599,
                -0.2658823286064239,
                0.17293938117479116,
                0.4274998075997308,
                -1.0064488654940353,
                0.44709200137429606,
                6.545415823472853,
                5.429904566410779,
                -4.257142546489524,
                -0.15600152946494011,
                -0.1476994347511173,
                -0.30328722466248886,
                -4.568852430814163,
                -3.891016060089831,
                -0.4098238171160509,
                0.33486192166130613,
                -0.30518688070672734,
                0.43487027407258133,
                0.7908730944583067,
                -0.22611666471514733,
                0.899372309068642,
                0.4542368416394342,
                0.20642349517722897,
                -0.4213498379024698,
                2.8578427219494906,
                -3.7678473380592994,
                0.7205154360572236,
                -0.002281429697694215,
                0.13459787075595148,
                -0.47278003206303565,
                4.111753148254921,
                5.108764427002764,
                -0.27286670424475246,
                -0.6731850276759717,
                0.6216153875002128,
                -0.3971252509204337,
                -2.382409993724917,
                0.11061038299335531,
                0.3727393689603763,
                -0.4195413964462117,
                0.48948811651983404,
                0.3563526263704912
            ],
            [
                -4.463036587790122,
                2.4759771863078193,
                2.58867243532984,
                -3.7743047120649336,
                -1.7587187890729685,
                1.6748926118707672,
                -4.435560658024983,
                1.9307217997383612,
                -2.7471044454756393,
                -1.0068975760713987,
                0.38398031872999694,
                -0.2578997447184759,
                3.301377379884291,
                -4.720768609520394,
                -0.6177360035102284,
                0.9436997245342409,
                0.19497990427817882,
                -0.2073059758732037,
                0.5322678524277473,
                1.9636796563398788,
                0.5418522294891042,
                -0.09659669386504403,
                -0.9033645687637902,
                -0.8615804903528476,
                -1.8468162509444366,
                3.0382122017486113,
                -3.0954221300252525,
                -2.9662008797922517,
                -0.7388744181103374,
                0.8680517530154586,
                -1.3343858392470658,
                0.8942656457214265,
                0.2222248746147217,
                -0.5755473911625295,
                0.7993244336395999,
                1.204352298326609,
                1.2498124918405753,
                1.5419299651008926,
                -0.28138129860222694,
                1.61071833620749,
                -2.0737972578157104,
                -0.6561384715682113
            ],
            [
                -16.437634477215774,
                -18.168107538068256,
                -1.4570067171897783,
                1.23794088113302,
                1.3897475760156364,
                -2.1341644684539065,
                -20.766290163876267,
                -18.881669797513247,
                -18.07852163154834,
                18.676797212795186,
                -0.40639582596647045,
                -0.09483902192209724,
                15.42943837007108,
                2.156559789579703,
                -0.6939472901549385,
                0.09393903811933016,
                0.1324992009180913,
                -0.9440730748495235,
                -18.913587898090253,
                -20.35094305149308,
                -0.20786656793733008,
                1.0417607631590584,
                0.3605515760812279,
                0.24725936067100351,
                -15.654794003569576,
                -20.346590476225586,
                1.4369507368335386,
                1.7933469112244826,
                -0.008910805972831188,
                0.15623412474242102,
                -18.56782014407686,
                -18.127367028485047,
                -18.116706928381358,
                -18.590679696529026,
                0.18227495486980505,
                -0.5452889730475056,
                -21.415129849419888,
                -19.33554559424449,
                -18.31953112247078,
                0.11399140164354997,
                0.5148025555818229,
                0.1390093863452992
            ],
            [
                -0.21471923419757846,
                3.1371632931801665,
                1.9312943541303829,
                -2.4737619970978226,
                -1.5741210049237828,
                1.5860549337118033,
                228.19902983586832,
                234.92223374667,
                -234.14470691387586,
                -0.9969671533756366,
                -0.8544069371611273,
                -0.7294843372120484,
                -229.62772878732483,
                -233.15645879934905,
                -1.3371510290853081,
                0.3941272594185029,
                -0.3026932395934003,
                0.43609029700300905,
                3.747647708657994,
                -2.181326018932972,
                -0.7611851369558755,
                0.9114004682720305,
                0.6346654003718083,
                0.2280156488528736,
                232.43292873124892,
                -231.19297799619764,
                -1.852420721247186,
                -2.3342493877297406,
                0.06441469991158771,
                0.9841384972069588,
                227.6090370240002,
                232.52378793874848,
                0.527682816317024,
                -0.4458371146810189,
                -0.13099121384321505,
                -0.6774147799023327,
                -229.92463827920986,
                1.3811513700113685,
                -0.15564347415016114,
                0.09145519197139311,
                -0.9637093292953415,
                0.34333552935278705
            ],
            [
                -1.5530180582230162,
                0.956966403430275,
                0.456637883351663,
                0.09337376399737995,
                -0.9083885514637856,
                0.6298008611371019,
                86.98621745104413,
                85.70540959404613,
                -86.36307331737656,
                0.08130847179503363,
                -0.022721713236572592,
                0.0731846470879951,
                -84.37580897753165,
                -84.61332602152947,
                0.9261028250143309,
                0.48560509607710084,
                1.1420255888865067,
                0.49004804202257335,
                -0.4280369186700452,
                0.5695259496911256,
                0.3411207990891408,
                0.24272382490933395,
                -0.29334533014021585,
                0.501910759878879,
                85.6249842117629,
                -83.92986554546255,
                0.2662222183019709,
                -0.36330115601600516,
                0.4019571615181358,
                -0.6453092145121591,
                86.57619616421225,
                85.22048354104084,
                0.8553351777647645,
                -0.06131587370376839,
                0.2118418199222829,
                -0.43015209869019755,
                -84.61749074834124,
                0.9095844175425846,
                2.3690956210670437,
                0.12492900264317826,
                1.3248111167968828,
                0.12226903141877159
            ],
            [
                -0.2576730461000071,
                -2.717455769617136,
                -0.01572661731370479,
                0.2720459847049818,
                0.11411557378024531,
                0.08941383963705508,
                -8.90869061276667,
                -11.953894930164436,
                10.974918691162722,
                0.1043590148020873,
                0.47471238780155556,
                0.5628562641144798,
                10.135890651599768,
                9.44622230021009,
                0.4013877754066283,
                0.021992978728235416,
                -0.09632294823444933,
                0.9285683978262059,
                0.781120970152201,
                -1.6705091262456686,
                -2.048043259793583,
                -0.6293311491706269,
                -0.2697014121114369,
                0.43290690064039217,
                -11.86259161652866,
                13.484319147021765,
                -0.8979317858767548,
                -0.34070303432886057,
                -0.12594256710353785,
                0.11513081479471925,
                -11.381371618482627,
                -11.61240568808514,
                -0.6277896928919322,
                0.8780557346617153,
                -0.8333037476841915,
                -0.27880738318348736,
                12.39787633000656,
                1.7647448519728426,
                -0.6362737633644897,
                -0.5228806943315565,
                -0.9745101378339196,
                -0.49609480936964423
            ],
            [
                -17.617890067206826,
                -2.545165102584927,
                7.001013096676089,
                -7.761361722407414,
                -6.202593067757669,
                7.155780344598483,
                1.0390745746880883,
                6.053662367105052,
                -7.898420770744546,
                1.2180104897949078,
                0.0374990783048618,
                0.6079743853701145,
                15.980440943730319,
                -15.337473760258318,
                -1.505455692507206,
                -0.5679817682313336,
                1.273481728438004,
                -1.2457114471643462,
                -0.9213615954533818,
                7.834095495983193,
                7.435054300003106,
                0.8979755155820697,
                0.5139698010335036,
                -0.739680976294127,
                -16.318812899776873,
                12.755957909468687,
                -5.6195963140423535,
                -6.240764868238436,
                -1.3977946384403888,
                -0.9729747969621931,
                1.6580690698669664,
                -0.6348106288963739,
                -1.0022818390634813,
                -0.2937620693307385,
                1.2969286231125812,
                1.6095095110306907,
                7.10604414994572,
                5.070544247477068,
                0.8713218216294357,
                0.8225545875574019,
                -0.46225531786756363,
                -1.167863896701346
            ],
            [
                2.175185527105528,
                -4.536252054865961,
                -4.882893231323499,
                4.901112270111548,
                5.035661300684753,
                -4.769598493360379,
                2.5881745471620983,
                -3.947957596754127,
                4.856843634352528,
                0.08340546143390253,
                0.669812938395478,
                0.25213335186910707,
                -2.066087392242416,
                5.100336620927061,
                0.4587870276546402,
                0.925615289016188,
                -0.41172917903371287,
                0.3824637973281402,
                -7.0146131499308835,
                -0.34767736259390164,
                0.24593175642788587,
                -0.3919531780716316,
                -0.23091057833106104,
                0.9437955705825041,
                1.2958951794919984,
                -7.582859439692703,
                5.581984162096452,
                5.2719140739975225,
                0.32126659541858515,
                -0.1453914304075747,
                8.316125085838632,
                -4.931388724117368,
                0.960924943673143,
                -0.06149781697547962,
                0.24803815590782188,
                -0.18262559250098453,
                -7.665088702019163,
                -5.389034505699864,
                -0.03486402349259277,
                0.23800016417359732,
                0.5380126078127196,
                -0.19195239063554992
            ],
            [
                3.6863173061243444,
                2.6147079119532672,
                -0.3061815628181593,
                -0.7670801093102552,
                1.1122467219755805,
                -0.3946335280680977,
                -2.5966520282207926,
                1.7163890956749681,
                -0.09391739414370022,
                1.053080271855736,
                0.16227827251277924,
                0.1129487770528863,
                -1.2031518005820607,
                0.6560753399734823,
                0.41942507916590466,
                -0.6458587262322733,
                0.46372470578899816,
                -0.28145901763734127,
                3.612845519243399,
                -2.6585865313989108,
                -0.8021750113397962,
                0.8929644599101868,
                0.41462328315607966,
                -0.8269278165247618,
                4.820549902517081,
                -2.4640792242050136,
                0.06103931508742728,
                -0.21657511355555048,
                0.031248815948837005,
                0.14251594966000186,
                -2.763833633834325,
                -1.1547662418259275,
                1.7422101138326662,
                0.6003635962397593,
                -0.64697277518294,
                0.10730996962237323,
                0.2821260369042716,
                -0.6986385378264448,
                -1.4298201760054075,
                0.9610785930601641,
                0.2997511692752086,
                -0.1811669622049326
            ],
            [
                -0.3638913636642586,
                1.890071484056408,
                1.9576218723942143,
                -1.4907034947604996,
                -1.1677529178706267,
                1.2721442928023505,
                -10.560680469304218,
                -4.628615607954295,
                6.504034320685131,
                0.09183912734055519,
                -0.20804964933761078,
                0.15817555100942512,
                7.53994834762515,
                7.583534033891167,
                2.437358495030104,
                -0.8457134088136533,
                -1.0215127679196396,
                -0.32211026497620987,
                2.0575511491537872,
                -0.026041576625467053,
                -0.2545679775896384,
                0.8365787919011496,
                0.36298214472656204,
                -0.31249345336250445,
                -6.8744595205556775,
                6.99809788674609,
                0.05336579001090755,
                0.3098187490372167,
                0.5225627010262943,
                -0.12591682565921217,
                -11.00849228381792,
                -5.593514528772337,
                -0.3888437603087443,
                -0.13854728679648365,
                0.5149874227027822,
                -0.5851512547270362,
                8.518765916473557,
                2.93656383944123,
                -1.1274533551335513,
                0.5858973029592491,
                -1.625266854068118,
                -1.2144839518208668
            ],
            [
                -2.8117369860950476,
                2.6378086193829264,
                1.7501117207650194,
                -2.754200491957081,
                2.118425256615048,
                -1.1715507013223028,
                -6.6265377735137045,
                -4.859770602768224,
                -0.6881465692368414,
                2.7601208560535553,
                -2.306065849134048,
                2.7770890365838077,
                -1.3175862658749433,
                3.972224357272004,
                -2.2604460829478588,
                -2.1030891165366326,
                1.4059122554666332,
                -2.3683655089851166,
                1.7317318688408232,
                1.6995721946863125,
                0.49597185866944377,
                0.8666887889553799,
                0.19097337234322959,
                -0.17632528611069226,
                1.4781756607579104,
                -1.6471633303844675,
                2.1726788661613132,
                3.078388739971106,
                -2.576073253516168,
                -2.3429503882190623,
                -3.988799291660098,
                1.0941361828573546,
                -2.754703134386907,
                2.051928692501062,
                2.100583245085596,
                2.2834882095323374,
                3.731152338279724,
                -2.069409545245346,
                2.81102753266055,
                2.1516229813561196,
                -3.2583461006254493,
                -2.8067960713749738
            ],
            [
                -3.716539735565675,
                4.344969928936182,
                4.15844664501723,
                -4.310207957824657,
                -3.369319987264845,
                3.3215369892366033,
                2.6424166463131984,
                12.440544722139064,
                -11.139885814360783,
                -0.33518500251440136,
                0.023315664591126457,
                -0.013226397004761064,
                -3.1946903588411195,
                -10.75197409886066,
                -0.47439086447295326,
                -0.22937334096571663,
                -0.06210316740349374,
                0.034063790779241904,
                2.4215355146180673,
                0.20700867171117704,
                -0.5213274417590453,
                0.5096128374370242,
                0.10510587803754003,
                -0.08259989584504225,
                4.883612875022467,
                -5.021104135394555,
                -3.7237059734091607,
                -3.7514221492120416,
                -0.36128949020907897,
                0.10010901906235008,
                5.802605758447269,
                11.813229134221865,
                0.2183789731527393,
                0.6169892036882801,
                0.3607957311708012,
                0.659831785501249,
                -4.417229403534258,
                2.59780276721644,
                0.14291366927495963,
                0.07539458319853204,
                -0.32049850209814307,
                -0.45419168982923014
            ],
            [
                -1.0872945980397788,
                -0.8445335082990316,
                1.0996656365706625,
                1.3168825108231506,
                0.2294234952158885,
                0.23788342918775376,
                -194.80523547053195,
                -196.73988646898925,
                194.01083152830782,
                0.6866382653450123,
                -1.2513572388185097,
                0.6704906355260242,
                194.716803896515,
                194.1186054429871,
                0.06181603141346365,
                0.02173534466524843,
                -0.24866720383157387,
                -0.24695203372123925,
                -1.737476712608909,
                -0.5010791773294355,
                -0.7827399881243151,
                -0.16190221588214726,
                -0.3509088074658137,
                -0.1372856172069981,
                -197.52226166179557,
                195.75777728250912,
                -1.2614518636382857,
                -0.3640592860769442,
                -0.048034995905306334,
                0.32727898996713084,
                -194.66465867088866,
                -194.53836221319256,
                -1.619645585443093,
                1.05859984416434,
                -0.5982755442125796,
                -0.15450472308155572,
                194.33065084915066,
                -0.6399694615942954,
                -0.8084918302895808,
                -1.558714993999895,
                0.6495154173743685,
                -0.5954922557936553
            ],
            [
                9.240836403183808,
                5.864303777483871,
                -0.5426190222864002,
                -0.30349904179846043,
                0.18777574437717856,
                -0.3168808526447767,
                4.862205123486614,
                5.511920100555592,
                7.274124956333361,
                -5.985912769397746,
                -0.8229036407398042,
                -0.1870247896607362,
                -6.5686744113699405,
                2.355918000211364,
                0.008959354992973028,
                0.22685177363304235,
                -0.36788197674831014,
                -0.0670373089509292,
                8.454002300637306,
                4.057609946450604,
                -1.3765513495634525,
                1.0939311719998508,
                -0.9159755029984887,
                0.17018367804244625,
                10.044259900410154,
                4.620809186104603,
                0.027510272580746294,
                0.030098453713922124,
                -0.1619990543223174,
                0.3667969021199926,
                2.9494602272103085,
                4.777500669102321,
                7.39350107043901,
                6.749252856770532,
                -0.307665458697786,
                -0.2313845017429696,
                8.781635402517349,
                5.3269152436466145,
                5.34293777099143,
                0.574891381639577,
                -1.0730184010294048,
                0.152251595131909
            ],
            [
                10.240048658048998,
                -4.120669332820632,
                -7.173360584070274,
                7.348728855820902,
                7.416415026627762,
                -7.970174195269766,
                2.850060893904709,
                -9.465196656161837,
                7.430176100896271,
                -0.4326605342284093,
                -0.025559044056825176,
                0.7017904537155617,
                -9.450587967057016,
                9.59488355968678,
                -0.7631748898236588,
                0.3544842805004211,
                -0.04511036709694988,
                0.7920248828202108,
                -5.941222042530297,
                -1.1143891250684912,
                -1.9543671050418703,
                -1.0904339132573941,
                0.3368272632808429,
                -0.04793738403791232,
                11.218372211619254,
                -9.90368674100452,
                6.4873468437038415,
                7.8659137096257465,
                -0.397853087258698,
                -1.004550717518641,
                6.433548334632629,
                -6.726921388436753,
                -0.9884353324498022,
                1.313771223260796,
                0.19012781717489088,
                -0.6672370167917717,
                -8.709199976542168,
                -6.428261628563956,
                -0.12392609959195934,
                0.46044986228351753,
                0.16048994257864896,
                0.24552839739451204
            ],
            [
                -1.555140612571605,
                2.295397833204939,
                1.8558918860678884,
                -2.1554053597658016,
                -1.7283331092704775,
                1.6992747065633902,
                8.43931494764668,
                11.869758228611488,
                -12.654485936372092,
                -0.02748096034085056,
                0.7153535553646774,
                0.4529294647237292,
                -9.079120026953854,
                -11.65991229197115,
                0.3755313459511991,
                0.1274703395325998,
                -0.20733213907688597,
                0.37004176521161747,
                1.9739061839811707,
                -0.34783787230309,
                0.1158300079149912,
                0.41293630814814614,
                0.9932870043256522,
                -0.9103835381526183,
                9.31658309593747,
                -8.520196079151374,
                -1.4948701819114911,
                -1.9340141794944246,
                0.20185366748810374,
                -0.16223583500022806,
                8.516181975446882,
                12.000755512318827,
                0.5419090257175913,
                0.03374485136415329,
                -0.21064181124747797,
                0.15395417135333672,
                -7.399509075261641,
                2.349066699341423,
                0.2761195747148262,
                -0.08206455290044928,
                -0.0448552728024751,
                0.2183693272010531
            ],
            [
                -1.9553175976668018,
                -2.362315138371566,
                -0.5533242363699068,
                -1.3572169921753103,
                -0.7093700307467413,
                -0.14203931027682354,
                -1.2047780848853828,
                -1.4495278927965585,
                1.2477304738374968,
                -0.12652152177495865,
                0.989080963419295,
                0.18950393188611273,
                0.822783008386405,
                -2.407988886218029,
                0.15148832927439262,
                0.5527597273281771,
                0.24739246127082531,
                -0.32281093609010936,
                -2.477122784168118,
                0.5979720134210712,
                1.6493976769677339,
                0.22227544334107438,
                0.04244272311792373,
                0.14448759662942492,
                -1.4579279252013058,
                0.17106668582526763,
                -0.49560681355963965,
                0.10758622657513271,
                -0.12857976693342857,
                0.401532976606205,
                -0.8969675812970129,
                0.03651257689635208,
                -1.0343944527863638,
                -0.9168433511911007,
                -0.007772306179634509,
                -0.11917729432173135,
                -0.3063748784171263,
                -2.0303883440470343,
                -0.07341648730734258,
                -0.2757170783708791,
                -0.01827796829672415,
                -0.12990088564229416
            ],
            [
                -0.7075679089866673,
                0.595751750499779,
                -0.5214330892141218,
                -0.406705158119296,
                -0.5662772780907539,
                0.07914421471019625,
                -75.72583715595984,
                -74.46272853732383,
                76.10292523826286,
                0.3140755377540649,
                -0.02394024830942214,
                -0.4437495660766076,
                75.31876891903717,
                77.42767469327217,
                0.07053859401303714,
                0.17320333394408766,
                -0.30831811960693845,
                -0.3135981078587792,
                0.9063167390494459,
                -1.4368807909736259,
                0.2407075964626695,
                0.9832840726750747,
                0.6317524912434617,
                0.15573810744294278,
                -73.89597033022818,
                74.57998750369265,
                0.9182323028649104,
                -0.11635471430948627,
                -0.2196750779459541,
                -0.5559893615545056,
                -77.57251615723705,
                -76.021846937227,
                -0.0761126139454923,
                0.04203500448084063,
                -0.3389977654017095,
                0.6214428033872337,
                78.69061730005085,
                -0.20955472607194364,
                -0.8948360521185776,
                -0.3018646115198434,
                -0.20298867917036498,
                0.48535916538176027
            ],
            [
                1.3573390627817703,
                2.3828549819478884,
                0.22627080551338621,
                -0.7761690593469693,
                -0.953290862462247,
                -0.41009741316778925,
                -2.606967949615614,
                -1.6862847602114317,
                1.5114972426699596,
                -2.0594303796988336,
                -0.3260176036921823,
                -0.7019617777712386,
                1.7285188214301428,
                -2.1306027402644805,
                3.6549407407697005,
                0.683156113784182,
                -0.7791543888853015,
                0.3868631556119669,
                -3.2409199351138938,
                1.2919595004837487,
                1.881497125290546,
                -0.044239417835651045,
                -0.3663629377402084,
                0.20251140293984396,
                1.852950516919317,
                -2.7426866593097894,
                -2.8468977995116607,
                -0.41043962671235973,
                0.47466164399563254,
                0.5864847768903471,
                -1.6736598295384064,
                1.620462295683466,
                0.14035599571669666,
                0.048769873827977844,
                0.30300111655955275,
                0.05920378693969366,
                -0.1071548296974271,
                -2.3716893180553407,
                -0.17897964489373375,
                -0.026754499109944974,
                -0.17584034160534942,
                0.4271368091197986
            ],
            [
                -5.822332896119164,
                7.730849413730984,
                5.544863119729891,
                -6.410068986822284,
                -6.569219608886794,
                6.681637771674594,
                -7.905827881180033,
                5.381298580332855,
                -5.446992258678336,
                -0.35302380423898555,
                -0.5313883318613358,
                0.8421798279771042,
                6.209701865706395,
                -7.548062239942049,
                -0.9413580942409296,
                -0.32098244668719383,
                -0.6565678859462186,
                0.6585922111410047,
                8.245537004372068,
                -1.4656995847414198,
                -1.2369505838042065,
                0.4020448272628915,
                -0.04200130072763017,
                0.10906054024368154,
                -4.762884448582913,
                6.275436561326236,
                -5.3941668001361895,
                -6.566814698795111,
                0.4193798655683591,
                0.29027152836981385,
                -6.0098369849775715,
                5.9737640616228385,
                -0.2558867786053942,
                0.8047031566082621,
                0.29859571943713886,
                -0.2012462893335807,
                6.332539859374083,
                5.129173466524929,
                -0.24556449080160928,
                0.25394057093084416,
                -0.2888695714851994,
                0.6536506829607304
            ]
        ],
        [
            [
                2.2633555375177954,
                0.07416306944785174,
                -2.354294098070093,
                0.4748858792473714,
                -0.5297833402619029,
                0.4620565000862402,
                0.3539089210790829,
                0.09557430555880311,
                0.8376863275003862,
                -1.4723137316654975,
                -0.811072563903525,
                1.873072513404906,
                -0.14391397387911842,
                -1.6893641316507781,
                -0.6856590604116959,
                -0.3313517789846185,
                -0.9172424643267179,
                -1.5908924256006587,
                1.6229267882578955,
                0.037319586638813934,
                0.31523775825718486,
                -0.23174277293959325,
                -0.7223959357015048,
                -1.94157720565754
            ],
            [
                5.375705069077531,
                -5.998947133447274,
                4.501928656551303,
                -6.828220631980549,
                -7.004559719436121,
                5.023662355418257,
                -0.8076840145256772,
                -5.579322890275671,
                -6.070655154505223,
                4.789993657279571,
                4.176791435603647,
                -5.205291158209642,
                -1.9039850213887415,
                4.237893346083795,
                5.365503767916652,
                -3.7862602306721627,
                5.044747369707831,
                -4.977113005300674,
                -4.626217833492741,
                -5.246072748488832,
                -2.910284719853742,
                4.954337000531547,
                -2.7546404971044702,
                4.947344712574507
            ],
            [
                -0.3410688881335222,
                2.4830451986506135,
                -2.6553175223165044,
                -0.09414795785711887,
                -2.178544110671961,
                -2.4345402192311774,
                2.5784053468812,
                -2.2225630908337357,
                3.4561402008437345,
                2.2171106698488026,
                -3.712176881874966,
                2.3618442532070896,
                -3.35922554976468,
                -3.282667063795563,
                -1.6058675540570904,
                -2.4694546197474314,
                0.341772582386891,
                -2.726915253982852,
                2.264444575790546,
                -3.8451373595739455,
                -0.12836499104134508,
                2.7321705405038643,
                2.928060201526801,
                -2.2585265851700735
            ],
            [
                1.3640170385657682,
                -0.17540455460068718,
                0.4987325560458231,
                1.5874739816732546,
                2.403979634062516,
                -0.24594002487448793,
                -1.8838923948900272,
                1.1271848078628153,
                0.18135008881115702,
                -1.0840022682730066,
                -0.17064142343498234,
                0.7229266935195018,
                -1.6778329253623445,
                0.26883710117294346,
                -2.2513655879695524,
                1.7425760994263109,
                -0.6452901800459896,
                -1.2069161387611995,
                -1.5523548533527083,
                1.566390638639373,
                -1.6488322033874339,
                -0.02748416000060879,
                0.9575744160978548,
                0.28439415891378506
            ],
            [
                -0.5847538460678627,
                -2.1537799799344137,
                0.4215561691090347,
                -2.2677655304100925,
                -1.5387147700994261,
                1.4041279186948608,
                1.202528053635513,
                -1.5780064289496019,
                -2.5148959987916584,
                -0.35847931924186827,
                1.1535861763369595,
                1.7648406737808944,
                -0.6896879075063207,
                -0.5995858920744785,
                1.8788884608277265,
                -1.073617966749067,
                1.7565183324949365,
                -2.7366260265771785,
                2.476688742463764,
                -2.261766418754055,
                1.884393363450295,
                -2.0333218665771717,
                -0.6834141006442044,
                -2.437316930600901
            ],
            [
                -4.7453340451250865,
                -3.3958395389224196,
                -1.5645999027088988,
                -3.9850675820893913,
                -2.6795994607500364,
                -0.7368215505073069,
                4.905437877187185,
                -2.2111875205808675,
                -3.903250846184391,
                -2.1621529251350187,
                -0.6768630335855117,
                1.676830856446501,
                3.9966043168293663,
                1.8768411332488475,
                2.99198754829678,
                -2.316600788163392,
                2.491603602658896,
                4.161397743839084,
                3.0416134452051335,
                -3.4572037502578956,
                -0.787835347333222,
                3.714142080620352,
                2.344430495685797,
                -1.3578632242046995
            ],
            [
                -0.11870999743801304,
                -0.8618002386544819,
                1.8801593408953243,
                0.7921447613743479,
                1.442944018981157,
                2.3404413610897676,
                -1.9768941577726282,
                0.16019381742876815,
                0.3445246901078863,
                0.3175108709151629,
                1.7701229337324083,
                -1.9406730510949106,
                0.8517901481745689,
                0.4982887900032798,
                1.6287699764968482,
                1.860309181707213,
                -0.37478437456077107,
                0.5613033425404559,
                -1.7636290507598762,
                2.489496557025689,
                -0.2546649325894029,
                0.44982816612663373,
                -0.5961241403601578,
                2.1496823611899414
            ],
            [
                -0.9169200122503252,
                1.5429822752663607,
                1.8647542058117943,
                1.141686641141757,
                0.6557188765980579,
                3.144996127358919,
                -1.2674315097281326,
                2.546303766556001,
                1.4657911941462307,
                -1.1515424661671194,
                1.512939085775672,
                0.30813983472398676,
                1.4737796393531926,
                -0.943235141457227,
                -1.225502060024319,
                1.2466478349890724,
                -2.591678114320432,
                0.10184548090869068,
                -1.3446042759047105,
                1.1868098557341564,
                -0.7069200979235268,
                -0.18066754133711024,
                1.9619879182971511,
                1.9196960901787214
            ],
            [
                9.695218497138377,
                8.976505853774949,
                -6.747436903885916,
                6.289032980787262,
                7.824592026362408,
                -8.83024526457044,
                -7.809318738683818,
                -4.445015867359351,
                -7.067652906892105,
                6.987681617185026,
                7.259098554625166,
                5.542362003062328,
                -8.996130030701014,
                -2.4037888446799847,
                -3.5461822345676364,
                -2.7926850500037927,
                8.134682905806748,
                7.419135098493632,
                -7.320542148637845,
                -8.98186946349341,
                4.611281830774031,
                7.81035841959357,
                -8.12388512889938,
                -8.718224772641008
            ],
            [
                19.63794284269363,
                19.302164073669974,
                20.524160151641908,
                20.293584071237888,
                17.752504053152222,
                20.976953086812177,
                -21.371262413693483,
                21.716499180831384,
                21.07240655559976,
                6.472523497715571,
                20.630521785495876,
                -22.40716749925977,
                -19.383848112207968,
                -10.16285676925676,
                -19.179878472681875,
                21.3424250319707,
                -22.155422996851666,
                -19.64154903471613,
                -21.549974854098185,
                20.54455999867549,
                2.2449314800231623,
                -19.19019477977215,
                4.183889809746483,
                21.836043997699022
            ],
            [
                -1.7405367202983826,
                -0.8747042235120828,
                0.2836826654242642,
                1.2430021250499568,
                -0.6872770507982298,
                1.4153043096421325,
                0.4628649053441965,
                0.22962403845285886,
                -0.6024051653006822,
                -0.04350785720428229,
                -0.9492858880867375,
                -0.12066008151909476,
                1.420943105785014,
                -0.6741348562031984,
                -0.39379420475685145,
                0.4803425400013091,
                -1.5478100276930677,
                1.078299412292765,
                1.027348762445228,
                -0.8248462709012403,
                -1.0388420566712113,
                0.08746896871537099,
                0.8324666030844307,
                -0.06786464341262272
            ],
            [
                -1.7398120007329059,
                1.9096102471681407,
                2.542159144057728,
                1.2889553745321116,
                2.112950006950236,
                -0.6680730140108453,
                -1.9917653754270446,
                -2.6480633652649956,
                2.133937181679261,
                0.9784677987129751,
                2.4511907230679832,
                -1.8510309852020772,
                -2.810558437712284,
                2.527700893572066,
                -1.694167425166583,
                2.0185929907669933,
                2.5112137285138845,
                1.0726852930633965,
                -1.482336336766233,
                1.4507746931423122,
                1.7747895313181505,
                2.467835121816795,
                0.2790637887534362,
                1.457539422059332
            ],
            [
                -1.5197545711670037,
                -0.6010529129139368,
                2.0269694913018395,
                -1.793502893072952,
                1.9410080935542824,
                3.683469149708883,
                -1.923496120264323,
                3.1421299338865447,
                0.7476256912103345,
                -2.438847480986436,
                2.1992809508977453,
                -2.135510619174029,
                3.42485559423179,
                2.3393503911067746,
                2.266569395536621,
                2.464425310145436,
                -2.661292940863567,
                2.072581171283783,
                -1.2657048772632828,
                3.005711922394465,
                -2.066162664724193,
                1.3873759560948775,
                -1.6095997403228988,
                1.8524715430108074
            ],
            [
                -1.3216128271376308,
                -0.27244020592787976,
                -0.17889048537720587,
                -0.5174761044960576,
                -0.8541636045062784,
                0.5545682645496667,
                0.0961671280348035,
                2.958573585631287,
                3.029591500228507,
                -1.6437795654433514,
                -1.5445014886854818,
                -1.2237544851328634,
                0.314214962220841,
                -0.34292165938514263,
                0.4730886570116957,
                1.5444663329882646,
                -2.7933342860147867,
                -1.8986602456087123,
                1.2692512529828455,
                1.248445341529739,
                -2.4068691838642233,
                -1.3678251570435822,
                2.235071227834007,
                0.5393706554159792
            ],
            [
                0.6495871512553539,
                1.647171445650657,
                -0.3758049529145117,
                2.0670035741967308,
                2.0497272094557855,
                -1.369544737792169,
                -0.9517867754195398,
                -0.1468336944870323,
                2.168218955345336,
                0.090103881253243,
                -1.0518038896426924,
                -0.1900081758212699,
                1.0095825304067503,
                0.3898624457679142,
                -1.333827659029332,
                1.5643125590384281,
                -2.280073359391663,
                1.7627413495290578,
                -0.7814148112588332,
                2.030056507763379,
                -2.706787261913914,
                0.040654952764344596,
                -0.6807021471389636,
                1.720122071338369
            ],
            [
                -2.003003789400741,
                0.28909604149135454,
                1.5988610725594115,
                0.15612460111863247,
                2.2751940250104545,
                0.7551274203792966,
                -2.1467612285814837,
                1.3070944345890732,
                0.6223440486872863,
                -1.743817396940573,
                1.6899799449856256,
                -1.0439480159885002,
                0.49268641540226205,
                2.6455585171927316,
                0.6041366482027151,
                3.850258740086766,
                -0.5914564676797437,
                2.7009290874959158,
                -1.720735559699056,
                2.9243331825402255,
                0.023293430597169054,
                0.398151762712301,
                -0.2638223493720903,
                1.8791434450123032
            ],
            [
                13.946881247655291,
                -12.67908660537076,
                11.445385105427423,
                -11.82074412428934,
                -13.909196154011386,
                11.064370630988414,
                -3.0954635302350346,
                -11.720502631059627,
                -13.039707737238231,
                13.392467076028565,
                11.453203419682863,
                -10.818652742443302,
                -8.258409931891276,
                10.047161541526238,
                10.874643965646392,
                -10.804405857618404,
                13.602975096789468,
                -13.83870341787527,
                -11.567927950911377,
                -14.228757725885826,
                -9.340276340247502,
                11.226440937656218,
                -11.251172715566755,
                10.265182599179065
            ],
            [
                0.6461402187910276,
                0.380335873803486,
                0.21233553833146554,
                1.377729910144363,
                1.3411930704891761,
                1.3230548780242164,
                -2.1950242798222757,
                0.28840994861299907,
                0.9761151480092083,
                0.04775900776655922,
                1.5201530280757236,
                -0.7121661636679634,
                -0.4331121452767454,
                -0.6095890035053633,
                -1.5563159619092328,
                0.596242530430015,
                -1.5299297767716147,
                1.0357876781040862,
                -0.9263541039210546,
                1.4997320301017827,
                -0.7344054862352892,
                -0.0678131849202225,
                0.5030153460581123,
                1.1088581230733963
            ],
            [
                0.5820013208351648,
                -2.664450100125234,
                -0.6093646994751126,
                -1.2418413495294662,
                -0.9180158238678403,
                -1.3526643570403636,
                0.8007217367068049,
                -1.839311693113084,
                -1.9573597987989173,
                0.13670970583379166,
                -1.0557262724526977,
                1.0134338641762703,
                -0.20511661282578778,
                0.27595063247834634,
                1.274882168538295,
                -2.0732245661669917,
                1.744090738614587,
                -0.09840081174828733,
                1.321714846828405,
                -1.510522451127052,
                -0.0770548376001755,
                0.5085894915182179,
                -0.8673533461254277,
                -2.0928689911779093
            ],
            [
                48.14718704675656,
                47.19328350014064,
                49.70861022471646,
                47.444061550560804,
                40.60439084735535,
                51.70387897929811,
                -50.19266783493464,
                49.905271191461964,
                46.35750673647628,
                13.529159786230338,
                48.93496296157418,
                -50.41203865685213,
                -47.2112170136506,
                -21.397574713914015,
                -45.522071663330784,
                49.81569314802255,
                -47.731145633002626,
                -47.623485092537706,
                -49.822993165739675,
                49.86768860876911,
                7.269116140337925,
                -45.803697774349544,
                5.268451326065652,
                49.75553049665152
            ],
            [
                0.7862856768605149,
                0.659842417866573,
                2.5248192199795594,
                1.7657609723754313,
                0.1887674470646405,
                1.109364876604376,
                -0.22310483838968237,
                0.5967505417970883,
                0.7249457314564807,
                2.155425386964358,
                1.1649538143767613,
                -1.03141282850954,
                -0.7269992853711238,
                0.8390546989414527,
                0.2840432732909658,
                0.551273305409416,
                -0.2219966064353982,
                -2.8987617425257484,
                -1.0995096537890778,
                -1.250075742182843,
                0.7878114431148755,
                1.077829986197652,
                -2.354885084336015,
                1.8049782935781196
            ],
            [
                -1.4360674890907337,
                0.1274427861963867,
                0.9111027795859987,
                -1.4189030679281835,
                0.01334414151606686,
                1.3753536961137203,
                0.48044796005881085,
                -0.5577746773754667,
                0.17610349778656176,
                1.5981211940162472,
                1.5966815068190936,
                -2.318755686531345,
                0.6336369891149478,
                0.23673497646205405,
                1.629754482168325,
                -0.007059424604379052,
                0.3741594480445468,
                0.7044439064273472,
                -2.725592985023393,
                -0.10867170077780748,
                0.8227896418339384,
                3.1238443121850508,
                0.09707538851756521,
                1.6848308923037425
            ],
            [
                0.22705283566955536,
                2.75626861823822,
                3.7726094878006102,
                2.8125203274061046,
                2.6257701426668087,
                5.145697973923897,
                -2.720737895171923,
                4.9179046820679915,
                2.658138019540666,
                -2.0100985928673722,
                2.682097885733028,
                -4.676477994430086,
                0.44012153135033805,
                0.40961830009868955,
                -1.3262254666099682,
                3.01501892192373,
                -5.348108218325896,
                0.20316843807256157,
                -3.3304113320653483,
                3.476429490075816,
                -2.161498577386574,
                -0.740742797773833,
                0.3220349040760915,
                2.8496801383703696
            ],
            [
                -0.07737050903712778,
                0.6952434418283489,
                0.6527318159076099,
                1.8472938339399936,
                2.5035734070685116,
                -1.414560361095057,
                -1.6223318194280494,
                -0.05709473426108928,
                0.012093605233440958,
                1.348690550605235,
                0.6702948094165758,
                -0.5526147173010582,
                -0.007954846347139779,
                1.3423025688546537,
                -0.18947279300546926,
                -0.7283634521367246,
                0.656733478188123,
                1.1569181468320004,
                -2.6629378611254726,
                2.064064379784643,
                0.6415802102778948,
                1.4291743702975321,
                -0.9722795300356574,
                -1.3691703978897463
            ]
        ],
        [
            [
                -3.685301904700086,
                -3.915639006439454,
                4.036416946148754,
                3.1140394031014753,
                -4.002886077298041,
                4.021717009305943,
                2.765665524971943,
                3.3434215796526807,
                -3.222556888516694,
                2.892899143347633,
                3.2945135028495596,
                -3.8458913745933727,
                3.3551206681288894,
                2.505174117890229,
                4.066657846475931,
                2.679027025813995,
                -2.6386155484151534,
                3.5834689071856713,
                -3.2360136399097748,
                1.6552822013062223,
                0.2567971449812255,
                3.141440045784715,
                1.9515293388533759,
                3.2854523690678903
            ],
            [
                -3.2171384864030896,
                -2.5887394489880373,
                -3.375624446730862,
                3.947424480746712,
                3.043947726390786,
                -2.8217451119770773,
                -3.318443701009856,
                -2.1623784427260646,
                -2.9661877215818433,
                -2.4768074025552282,
                -2.8606805740644212,
                3.3448820605117566,
                -3.8957873605674687,
                -2.3788416799507512,
                -3.0390493295005787,
                -3.0150315978384916,
                2.94345174789555,
                3.870949430997731,
                2.8274605471703174,
                -2.7908906437653944,
                3.04949847879823,
                -2.2913081608583195,
                -3.9266838041396452,
                3.8246297809129675
            ],
            [
                -5.25155018172305,
                5.331270818738624,
                -4.659290449370949,
                -3.0054313355208344,
                1.6599743037513741,
                4.514675507180338,
                4.43165809492963,
                5.3592583861348295,
                -5.183668496168191,
                -3.7282316443035364,
                1.0038124515306213,
                4.574385200483821,
                4.996246474319323,
                -4.411330440511492,
                -3.9355067641364827,
                2.9828127948039356,
                -4.393957205331194,
                -6.675336867465938,
                -2.7949035558074526,
                -6.130177164768095,
                -5.159301346476251,
                4.299850940405222,
                -6.505586797422252,
                6.353191073776512
            ],
            [
                -3.989414079149842,
                -3.242296747832104,
                -3.1988833543803836,
                3.0474317219140588,
                2.4479946847947938,
                -3.43141569636175,
                -2.494162747300202,
                -2.9727926538988974,
                -3.2452889156405518,
                -3.446100079333371,
                -4.083121100172043,
                2.7831940275532694,
                -4.219241727057301,
                -2.90883142872531,
                -2.5995468858740125,
                -3.620904395664563,
                2.8296733163040675,
                4.276400875771984,
                2.9045833165746187,
                -2.3649151593842,
                2.567341401998128,
                -2.9742633108988596,
                -3.1540824733137187,
                4.11594151992503
            ],
            [
                -6.859005253165331,
                6.931091393261474,
                -7.297477971803946,
                1.7173253715392915,
                4.962664822262403,
                4.805472531053251,
                5.691476193364163,
                -6.49875474502769,
                -6.210313295675166,
                -5.533470943277094,
                -4.49931860674194,
                -6.760077744598408,
                5.462411425895877,
                -0.1236384547086073,
                -5.64972615097634,
                -6.075953933039113,
                5.623143519385232,
                -4.156067069603408,
                -3.039556242248078,
                5.685206150732953,
                6.013696574211848,
                1.923290254834141,
                -6.764753396386425,
                -5.082734470281873
            ],
            [
                4.633878233104597,
                -3.4658822543177097,
                2.731321548856772,
                3.363690767292725,
                -1.8726712181943443,
                -4.199733205891593,
                -2.9795714085240217,
                1.226962449418659,
                -0.8421129613278245,
                2.8739777334047716,
                3.255095064686478,
                -0.4570670763888706,
                1.5844737584182238,
                1.7777107017808158,
                1.7056238775425652,
                2.5837181416020014,
                -0.07314436036898928,
                2.433047413394234,
                4.00203098955651,
                1.9605511150378172,
                -1.9501690020370497,
                -3.2190818558422976,
                4.110537924604093,
                -3.449536797417981
            ],
            [
                -1.3458596070312634,
                -0.14812929960804053,
                0.610413406822475,
                -1.0792869709495827,
                -1.3562834774584742,
                0.8471293020933883,
                0.3334597957608057,
                1.294625028514326,
                -0.49337124564106266,
                1.3786366852921235,
                -0.47544754266628325,
                -0.9112052969260521,
                -0.7197791200582283,
                1.8280587856850026,
                1.3598988295567778,
                0.41245573590765927,
                -0.8301521793086154,
                1.2034045953850812,
                -0.17738552292922538,
                -0.06739171053170633,
                -0.43340827464544274,
                0.7698856940903605,
                0.049067625378075505,
                0.3986346533379563
            ],
            [
                2.8981052662691686,
                -1.5932762533196085,
                2.7060542336151197,
                4.668473617840253,
                -3.732678857128701,
                -9.007496600069167,
                -7.658839803308552,
                -0.04875443485784174,
                -4.03236598799143,
                2.5492552836718536,
                3.8762610396219976,
                -4.83273568627003,
                0.581799866988005,
                6.20764323556688,
                3.899958212172812,
                -1.4568826208388055,
                5.132893834582689,
                4.655104572634915,
                5.367400522447266,
                -0.6558159317241299,
                -1.3130316407241358,
                -8.015282132077502,
                0.8996912998007799,
                -4.610053449640667
            ],
            [
                -13.873046601939718,
                16.820172010888374,
                -15.543942917526142,
                1.1739963571907808,
                21.24621845788691,
                18.011216887431416,
                17.84892371226163,
                -16.508417963321424,
                -15.422477376514422,
                -18.907176015194132,
                -19.604848977969866,
                -16.05210989908124,
                18.602738593110242,
                -1.195375249938513,
                -22.093562259694664,
                -14.361259779686648,
                14.855257337431663,
                -19.870945782544172,
                -8.12083368821453,
                18.616560874851217,
                15.325768299521974,
                9.887279567903684,
                -17.141610269451892,
                -19.138672769504304
            ],
            [
                3.5477065773261978,
                -2.102459054630882,
                1.9298162891939987,
                0.2576085652782779,
                -2.0374394720459272,
                -3.614635886884868,
                -2.6684904880623326,
                1.289347870792424,
                3.078397586189158,
                1.4973740470446626,
                2.3163967695990584,
                3.5265828026834685,
                -1.8623276909933744,
                -0.9953471136344526,
                1.7198017754872026,
                2.6128710264978587,
                -1.9764195098859985,
                2.1593199339756577,
                2.871968872702825,
                -2.8148941312471893,
                -2.7018588193821214,
                -1.6922880009147567,
                2.17743795117145,
                2.256400503480218
            ],
            [
                -9.617716216209159,
                2.3551093504046006,
                -7.580974558760018,
                4.062787437569126,
                7.6513171136534,
                2.357044771416667,
                3.1272663754495564,
                -7.461826297811838,
                -8.491614434815453,
                -7.6124871093074455,
                -8.064967441430836,
                -3.6281413655205172,
                1.9872278484945165,
                -2.103439975505063,
                -7.41444847723637,
                -8.217593325759154,
                8.522307702209122,
                -1.7625512780585908,
                -1.029366834344728,
                2.7147082676786796,
                6.544009506353611,
                0.32892919653375047,
                -8.901590664772014,
                -2.178920767529584
            ],
            [
                -9.006325175014448,
                8.833303588047821,
                -8.679577933186502,
                1.3911208307005754,
                8.850158059473562,
                5.80177229698077,
                9.18323125643255,
                -9.689895903670164,
                -7.0635151270507235,
                -11.130389799285059,
                -10.020713520741424,
                -7.257509388079477,
                7.736632903660688,
                -0.21695734329466546,
                -8.501848869224931,
                -9.418532905406003,
                8.974199949922907,
                -9.448175577467275,
                -3.7856404318404344,
                7.858626749087953,
                11.237307912756638,
                4.244909270613156,
                -9.164560342369775,
                -8.096987293488482
            ],
            [
                -2.905988758378504,
                1.374945368136856,
                -3.4133581373261443,
                3.1690055968694986,
                -2.6794657457416027,
                -2.6829794607955315,
                -3.2863077549972752,
                -1.453880844639598,
                -3.5024206202711685,
                2.3172174316337126,
                0.52142132621956,
                -2.172262373582663,
                -1.4633644110303268,
                3.156805233141739,
                2.4560654707389755,
                -2.858906389111792,
                2.840816880898218,
                2.320032829359279,
                -0.8318066964572025,
                -3.0053758799754298,
                3.238732958579874,
                -3.324724069410142,
                -4.70649712450832,
                0.49084853208163437
            ],
            [
                1.527817513081961,
                3.0367931849828502,
                -0.44883114429109033,
                -2.9855870153052253,
                2.8342562146703085,
                1.5833577360763194,
                -1.5809718318747727,
                0.1373302206308136,
                -0.2651233906635507,
                -0.7857096841886129,
                2.535884238537688,
                1.6230926386256792,
                2.7913996346588648,
                -1.7317477838741548,
                -2.892789369071152,
                1.6304757230541223,
                -1.3691814386488725,
                0.12804693814449425,
                0.29734189196596705,
                -0.7052930098038175,
                -2.329103429665877,
                1.7887661511719324,
                -0.6239583209367309,
                1.373993472856981
            ],
            [
                -19.278301142324292,
                25.885293277596457,
                -18.995636385393688,
                -0.6873820286674431,
                26.560892944253368,
                20.796019240898517,
                18.007934784052832,
                -28.84557420738144,
                -17.861999009114047,
                -27.137674817371668,
                -26.53319649199359,
                -18.57615718033308,
                19.222670218634196,
                -3.9607715511836243,
                -27.415138454411295,
                -26.11757317431616,
                27.275172364839943,
                -26.856483267063116,
                -9.477215355106411,
                18.9914123978664,
                19.327444571222813,
                7.095478724474501,
                -26.21434524725929,
                -18.71563859920985
            ],
            [
                5.81723372686456,
                -7.471734437510099,
                4.940764820771962,
                3.121832570585124,
                -13.190810759988437,
                -8.028568243442535,
                -7.6680330368436485,
                10.892018927905136,
                5.643082526043146,
                13.502323450828884,
                13.896564057273405,
                5.555021572427285,
                -7.164482904282833,
                2.455300712171023,
                11.699289304221663,
                11.523672388422035,
                -12.238030578468305,
                13.599490567960123,
                2.803120051390501,
                -7.336856105047176,
                -10.053790877188883,
                -2.326435707118281,
                11.632900237548501,
                11.87050350129588
            ],
            [
                -3.456677000915925,
                2.605477118659765,
                -5.283572202474379,
                3.7133883099854694,
                -1.907738168287738,
                -4.234986123356872,
                -4.526336798777894,
                -3.6966293412817635,
                -3.3464758779492674,
                1.084315061332647,
                0.700809718180632,
                -3.700929479634538,
                -1.878728170745744,
                3.6057179218442115,
                2.9985555855639823,
                -5.915948087290784,
                5.115571272207045,
                3.802350932435358,
                0.5078681887430422,
                -3.7881047128259,
                4.84321498441376,
                -4.8500071387204775,
                -4.2219121877353185,
                -0.6423957187099893
            ],
            [
                6.814270499366261,
                -2.1904829985994,
                5.358722792155203,
                -3.5024584112518573,
                -3.2705925381543723,
                -2.886307899225442,
                -2.3164910200661897,
                3.5849323827326103,
                5.937217072190261,
                3.8454297582663766,
                5.481268027855843,
                3.6339424348914475,
                -2.1331748757069966,
                0.4608396174481959,
                3.7566559986207433,
                4.624634836593113,
                -4.250342033634596,
                0.6332853710730061,
                2.338402669508695,
                -1.8798023079826602,
                -5.0757739684557395,
                -0.4588473625115171,
                5.06081622111766,
                1.1170636127429918
            ],
            [
                25.240234209848307,
                -25.205894247398366,
                24.838679294995142,
                -2.6232632011353503,
                -25.273766703195648,
                -26.06002385753958,
                -26.283788440822875,
                24.070307858249635,
                26.521794505208675,
                23.61322877000127,
                26.349519694757596,
                25.166581252205017,
                -25.868609295343074,
                -2.0809513721145234,
                26.425897206343773,
                25.282322662310495,
                -25.15268081275212,
                25.18442478032109,
                16.875348831813092,
                -25.43859701408277,
                -24.889162639405097,
                -13.211059947981477,
                25.305954174776197,
                24.62298808831533
            ],
            [
                1.6611355293356294,
                2.469898691263534,
                4.028339787316574,
                -2.3862579034320968,
                6.576854121642148,
                3.945511144265297,
                -6.757403594191181,
                -6.7273323477578195,
                -2.4755446972638295,
                -6.932808236984177,
                2.084644626264218,
                1.632056888933247,
                -8.321640766872047,
                3.728707473099868,
                -6.597196511347159,
                -7.763593164912609,
                7.671216626616776,
                -1.6951293558877831,
                5.991168373080699,
                -7.427606875921519,
                -2.7580493370223333,
                -6.448409004993219,
                1.587907890047071,
                -2.124753631925664
            ],
            [
                35.06227517422538,
                -35.05720178504231,
                36.58429806524521,
                -6.802341891425573,
                -37.32010259139691,
                -34.81696320844406,
                -33.81204834558959,
                36.67383943482174,
                35.21196869886261,
                38.03282389655988,
                37.09082020897175,
                34.31006041686333,
                -34.775858446318374,
                -0.7423077989946418,
                37.00487242600076,
                35.79676849960386,
                -35.21822470963612,
                37.20661330029169,
                20.035813825376678,
                -33.807448193906524,
                -35.61698499061016,
                -15.191116920922221,
                37.681360680133785,
                36.199825361043665
            ],
            [
                -46.37360721234957,
                45.11509311240503,
                -45.24068013292559,
                5.501223157596227,
                47.097697232382146,
                45.34744152282722,
                45.08520226086729,
                -45.42350175147974,
                -46.11119979846514,
                -46.57079307045174,
                -47.27073972756295,
                -46.042257118438904,
                44.485576578992536,
                1.3383790311311416,
                -46.26931551937769,
                -46.98452270026797,
                46.685359512202226,
                -46.18255083596219,
                -26.967218588358424,
                43.1902494647235,
                45.306825627767,
                21.191615184804192,
                -46.867679020871016,
                -45.1376113067415
            ],
            [
                -0.5357359377593408,
                0.535299487392964,
                -1.661559946217406,
                -0.4340264478467622,
                1.4538848351068778,
                0.23812268761286542,
                -0.19669157083544445,
                -0.5385675023897152,
                0.5530917633456585,
                -1.2177505187592101,
                -0.7306988064514641,
                1.004046006161765,
                -0.017466882700326734,
                -0.528938125420463,
                -1.156073823967699,
                -1.5617827692036448,
                1.370411054100469,
                -1.4770483851774794,
                -0.35905500802881857,
                0.5005670996134054,
                -0.8657082360523094,
                -0.5335484584299718,
                -0.15125130482243546,
                0.4003751826234572
            ],
            [
                -0.8878468499619093,
                0.5061607356024409,
                -0.35039462006037714,
                -0.024735672646614967,
                0.9835420158213125,
                0.10950977689915439,
                1.3107968323933272,
                -2.4005457924592366,
                0.5636380969023135,
                -2.2966419231274586,
                -1.4696978945382069,
                0.3257470558416831,
                0.5587346434317354,
                -0.2060404902084798,
                -2.0964213775649676,
                -0.7447804280673342,
                1.1523376482475565,
                -0.08126179697469027,
                0.8361326423145723,
                -0.32727071149904774,
                2.366283959695551,
                -0.05029425218267831,
                -1.2082235095612601,
                -0.7356254316652857
            ]
        ],
        [
            [
                -1.381366825073238,
                1.1556352026582275,
                1.350606278434581,
                0.8578253637157445,
                1.3684639037848692,
                0.3863945556152255,
                -0.6375068496413627,
                0.8567655160289986,
                2.1505434521791713,
                0.1741426710460438,
                2.598873139502117,
                0.7001416048837706,
                1.0532793941523495,
                -0.1259114044702392,
                0.008332054652697268,
                0.5928784767924757,
                -0.10086502757744363,
                -1.9470259418427627,
                -0.6954640321818313,
                1.5639654764895696,
                -2.779911152949619,
                1.6869650168440191,
                0.8032549005033388,
                0.663848463937996
            ],
            [
                -2.721154574392934,
                -0.983618672745196,
                -4.292070851657855,
                -0.4114851193300918,
                -5.417575728925479,
                -2.427432357825592,
                0.25817242038420213,
                -1.951030275229225,
                -3.5091093807373173,
                -1.07939440973283,
                -3.745276269318751,
                -4.095626392142645,
                -2.0035840126810442,
                1.0215566679458845,
                -4.913730505408845,
                -0.8204240501231427,
                -1.9717588584102452,
                3.6271926177022533,
                3.3789334870770866,
                -1.386596063018334,
                4.288113703443343,
                -4.990231477201148,
                -3.341577187894356,
                -4.752337506298235
            ],
            [
                -2.3744118822815805,
                -3.593345533748582,
                -3.0317632224085043,
                -2.747219892557334,
                -3.7410100896808802,
                1.5247511915960819,
                3.9248219253318553,
                -3.0006210176107473,
                3.133138001361891,
                -1.8270839266526746,
                -2.344509626159329,
                0.7790575691625871,
                -3.5227760976927804,
                2.350158469287303,
                -4.910683354198415,
                -3.4179134623879457,
                -2.788483275896625,
                3.094584826771494,
                -3.7189967673953053,
                -3.7318282306779893,
                2.6732613236604315,
                -3.9713792121869282,
                2.7222382680352433,
                3.244637565578685
            ],
            [
                0.2103784525315939,
                -1.370320427953907,
                -0.365506105989103,
                -1.1184253410935994,
                0.34286267139676496,
                -0.559782304385017,
                0.005398304002949095,
                0.305097237730577,
                -2.368264848207753,
                -1.2291517201036486,
                -2.1073216071613414,
                0.03861711293966274,
                -0.5451815897647344,
                0.424946715416015,
                -1.0637289549381073,
                0.3502257369382434,
                0.39485945527404703,
                2.3939850636282887,
                1.8984008231679856,
                -1.7732169206811546,
                2.326547769322497,
                -1.7676036700845794,
                -1.895685134350757,
                -1.4356757671057525
            ],
            [
                0.09117095650259695,
                -0.6619080209815972,
                -0.015116119785890952,
                -1.4952307252911599,
                -0.5939309782239376,
                -1.1034341606200793,
                3.4945911675088936,
                0.09821673049854465,
                -0.12337551143055227,
                -1.3742122171744307,
                -1.9237742740604116,
                -0.49186999893657884,
                0.8498006993512729,
                0.262596362827972,
                -3.3116026136192613,
                0.23992918493215126,
                0.5848159241058128,
                1.277178973083733,
                -0.22356289180912312,
                -2.067788312396998,
                1.1776773811115337,
                -1.289734813330479,
                -0.09075188488166552,
                -2.0373044130069036
            ],
            [
                -2.7399366109884107,
                2.1180434348469226,
                0.2456819018228251,
                1.995071365248351,
                -0.31846461193625214,
                3.0621477185143524,
                -2.0165000549182848,
                -1.0595128928414994,
                4.220021876242648,
                3.035716634123926,
                2.2853037695064575,
                -0.6993384129812256,
                -0.6596406356566404,
                1.9995950735518198,
                3.975165956420688,
                -2.249987675324771,
                -0.8080946970381513,
                -2.044333066751221,
                2.6906255641941836,
                1.8761835928100006,
                -5.195299084696032,
                2.580579120497932,
                3.3860301869479508,
                3.1548022660690886
            ],
            [
                0.927161811793838,
                -1.2656275623187963,
                4.180595873602624,
                -1.900388660645423,
                2.3833057417940036,
                -5.3745439028596556,
                1.020478969142625,
                -5.573994307746649,
                3.6017966572561866,
                -7.147007055857811,
                -1.3438278150418552,
                0.6670993595327421,
                -3.335876164941325,
                -0.5370573554328862,
                -1.249390760658328,
                -1.5756265773725893,
                -5.215693253251437,
                -4.700948537018284,
                -6.626304355243175,
                -4.753569683420978,
                1.2349187918011115,
                0.300412380079343,
                -0.5108293790184,
                0.2977940932313623
            ],
            [
                -1.102250320461686,
                5.221789860874326,
                -2.5958675759676417,
                4.502416083724508,
                -3.094665834302285,
                3.4243996195540727,
                -4.097672807977369,
                -3.1458180584788,
                1.6043342083313208,
                4.037574905863113,
                4.074358979900039,
                1.7439269545011706,
                0.9332221932554157,
                0.23575425244726356,
                0.2039530167337206,
                -2.3959383947761324,
                -0.5029767242180304,
                1.9442941956338198,
                3.776911024029048,
                2.665495296085633,
                -3.9818309596830694,
                1.2998737079519216,
                0.1929267233760055,
                1.5412747754877463
            ],
            [
                -1.583699125799542,
                -2.7278999357384452,
                -2.088857657106838,
                -2.2353576972250946,
                -1.8052719653997222,
                1.9798074833631494,
                -1.936731553755491,
                -2.3726881216108344,
                1.4447723852467702,
                2.4548524614240628,
                -3.56582242680511,
                2.748635449773446,
                1.285789481209377,
                1.4816286375119194,
                -2.365823831734582,
                2.4364338284313805,
                -1.125223094567246,
                2.914839571035521,
                1.8057777595189823,
                -3.274560615239102,
                1.870761772910883,
                -2.5742115569650834,
                -3.0480378709705755,
                3.308983909763358
            ],
            [
                3.2375257872491976,
                -2.0716930224194945,
                1.6039209457898436,
                -1.4077871435891598,
                3.905387438668513,
                0.39273718587425127,
                -0.8569455154984523,
                -0.9253818905198118,
                2.5631374209732964,
                -1.178105286707439,
                4.472820045292754,
                6.08743716153214,
                0.2893749738143614,
                1.1179547033462327,
                4.614124511958861,
                2.173538752991588,
                -0.5791137084117645,
                -3.9961107541313265,
                -1.3966756943661212,
                -2.699627230235791,
                -4.81883265823824,
                3.6206428517297375,
                -1.9889894427168726,
                0.4510890870166367
            ],
            [
                -1.7705207711908695,
                -2.4737915720749966,
                -1.7301323039928946,
                -2.8336400256603707,
                1.2406322279761828,
                1.2982594067922377,
                -1.223362893170003,
                1.0125583348504243,
                -2.6092071888094672,
                0.6075090498986587,
                -3.661984629318668,
                0.9725580978033803,
                -2.595630335236561,
                0.6729012825665014,
                1.0948230352852393,
                2.2865558525845042,
                1.8676561167050645,
                3.761446810930705,
                0.18955141236723222,
                -3.4325614185480102,
                2.701438344468002,
                -2.2837151181245567,
                0.16969695051534675,
                0.8506520080314517
            ],
            [
                -0.6021817662763203,
                -1.3281966191735393,
                -2.0815339329962055,
                -1.5671491257228418,
                -1.2650766721470827,
                -2.670467600248371,
                3.3643970708036877,
                -0.7557575243020144,
                -1.5011201703271644,
                -1.4638128729050557,
                -0.5283418617472645,
                -2.2564439370509426,
                0.5825175049645924,
                -1.3576955919171985,
                -1.0840707506868072,
                -0.22646381761086148,
                0.6818645531069837,
                0.09388894467217825,
                -2.028981145706694,
                -2.165449737323346,
                1.4126352448969086,
                -1.4912369009242128,
                -1.39462613297196,
                -2.4677099870627153
            ],
            [
                0.5579289097848026,
                -1.2324279139729222,
                -0.9330095312757885,
                -0.6494128996309237,
                -0.6817535871064874,
                0.6697603709432919,
                -0.8470260922895212,
                -0.12689547582961017,
                -2.142629075149487,
                -0.5427819799043271,
                -2.3007980098851175,
                1.28852237680132,
                -0.4409299239595096,
                1.7805089726787027,
                0.347084702149927,
                0.5791628363078036,
                -0.5009238728897749,
                1.2748936628850196,
                1.0497414847830737,
                -0.20766063996538597,
                1.0694525252780043,
                -0.8248950989708185,
                -0.5955863935753404,
                -0.5101117183333195
            ],
            [
                -0.9952171221732682,
                0.09263928909894648,
                -2.207746172976909,
                -0.24594323196811804,
                -3.3230922834830103,
                -1.049091329742573,
                1.9808063490479162,
                0.5303522845906861,
                -2.3622420647968894,
                -0.031603977460060974,
                -1.6595789712243245,
                -2.5051769102460852,
                0.2148078737307807,
                1.0241335805808562,
                -2.8052037339315348,
                -1.1347998850625973,
                -0.5184121726836893,
                1.782115135229137,
                0.3303356826711899,
                0.2022328362905323,
                2.230120802258542,
                -1.546902895534401,
                1.103559727860903,
                -2.135484837346924
            ],
            [
                1.011386121358646,
                2.632430843827792,
                2.93191762471156,
                2.6124370317252015,
                3.537746213396063,
                3.702749755880685,
                -2.0289810590749977,
                3.122522650963037,
                3.012610470349194,
                2.164561156433606,
                2.436345747059441,
                3.380301510847342,
                2.84376409698096,
                -1.370671608533158,
                3.501460679456773,
                3.0780295870745484,
                3.2316316523854365,
                -1.712934042931192,
                -1.090625546695064,
                2.955087692775293,
                -2.9247700938826338,
                2.8548626932563868,
                2.930672132372346,
                3.467435419714613
            ],
            [
                -1.1947835055564304,
                -1.1711215294204773,
                -1.441727673537803,
                -1.1493312750455265,
                0.02593468017802794,
                2.3040848177069564,
                -1.6517020338746218,
                -1.1366476275224369,
                -0.5590978240133765,
                1.7892995738150046,
                -1.1861719114883944,
                0.6167426429053537,
                -1.1954499895117898,
                -0.4250798687248842,
                -0.2059581722863225,
                2.2955759229295665,
                -1.2779472079221421,
                2.881195952191403,
                2.2684228089406777,
                -2.599465256823699,
                2.542393561530516,
                -1.564200819150527,
                -2.771854307601399,
                0.11359290031296222
            ],
            [
                6.7233757359151705,
                -2.074682815816433,
                3.8191183801339794,
                -2.2912624571412534,
                -4.1978123147191,
                -4.526033677614009,
                4.299664276008942,
                -6.658661858191661,
                -3.441488591719986,
                4.030817567350213,
                -2.293837468627421,
                -4.406787441453197,
                1.6811310524700505,
                -3.8968170097395265,
                -6.72569868707257,
                3.126712714995756,
                -3.5540852498294213,
                3.036544856741403,
                2.9826953234065665,
                -4.04967185202216,
                3.707131557894653,
                -5.702839464207252,
                -4.6856762302828185,
                -5.013894438517806
            ],
            [
                0.2394435944803458,
                -2.73315431981985,
                2.1480254535524543,
                -2.628420881205035,
                1.2135991768639685,
                -0.677987402124561,
                1.1069403881183746,
                5.220399967084252,
                -2.9388265862545455,
                -1.793884512950542,
                -3.2739447342784254,
                -0.416691736991604,
                4.965155130469027,
                1.7084129650155842,
                0.6511817429176536,
                0.4971357498802292,
                5.247532202291958,
                1.203643568528079,
                -0.5661657649894127,
                -0.10745520761783708,
                3.3160110313973825,
                1.2413688872806177,
                0.23086261165412847,
                0.2986870144256002
            ],
            [
                0.8021807474396059,
                0.06960640194880387,
                0.331912304989511,
                -0.6997845492715886,
                1.775575204428674,
                -0.3087766687907696,
                1.3266532782994338,
                -0.6476583250342616,
                2.7987607504121423,
                -0.9582727670341239,
                3.7806713322184917,
                1.9382021564106144,
                -1.0379919696433528,
                2.546097978055166,
                2.5730476247198286,
                2.175042948616791,
                -0.7736380000601417,
                -3.9270548021464107,
                -1.7940671498744194,
                -0.1309146016524588,
                -2.577356079200131,
                2.55680755519712,
                0.6650392076621465,
                -0.46832263662108886
            ],
            [
                11.207462871509698,
                14.307120263559415,
                11.61441055071815,
                13.76623827910033,
                7.586893095552201,
                3.1570755837592976,
                -4.543739913234147,
                -6.7240105146572215,
                -2.4873231325702947,
                4.4027621637920475,
                14.50484450795824,
                8.812967787573681,
                11.267068912159683,
                -11.392534109680929,
                -3.260299663610746,
                2.4398982846312034,
                -4.052211440373166,
                -14.717918792146497,
                3.55320455801517,
                -3.078167112316033,
                -13.531025893134126,
                -0.5260304960922486,
                2.235712578505352,
                9.786483668138667
            ],
            [
                1.3964175651207016,
                1.2795673526984832,
                1.0627395980174859,
                0.8910769779788705,
                0.8097486118471214,
                0.10536634789399764,
                -0.5492063748019609,
                0.752315782707569,
                1.3472014526546987,
                0.5226059826532273,
                1.9291602650415693,
                0.6697559616015563,
                -0.051569481951288014,
                -0.05821745289987806,
                0.9746349311411137,
                -1.0594829737262228,
                0.15571447193879712,
                -1.9051014124200327,
                0.10350268364867443,
                0.6717555018903243,
                -1.6458666080945314,
                1.9433710317618513,
                0.8756400852499898,
                0.49781641614711325
            ],
            [
                -0.20589909625784897,
                1.3889980055847329,
                0.5928273739862258,
                1.3508217910464524,
                -0.13812597602020255,
                2.6118231495668645,
                -2.294818350724398,
                -0.28332796436266783,
                -2.12366270837987,
                2.0359797390950454,
                -1.5631399458623112,
                -0.26921342385636615,
                1.2172858163178728,
                -2.971891013387014,
                -1.8747655377181154,
